[
["index.html", "mlr3 manual 1 Quickstart", " mlr3 manual The mlr-org Team 2019-08-07 1 Quickstart As a 30-second introductory example, we will train a decision tree model on the first 120 rows of iris data set and make predictions on the final 30, measuring the accuracy of the trained model. library(mlr3) task = mlr_tasks$get(&quot;iris&quot;) learner = mlr_learners$get(&quot;classif.rpart&quot;) # train a model of this learner for a subset of the task learner$train(task, row_ids = 1:120) # this is what the decision tree looks like learner$model ## n= 120 ## ## node), split, n, loss, yval, (yprob) ## * denotes terminal node ## ## 1) root 120 70 setosa (0.41667 0.41667 0.16667) ## 2) Petal.Length&lt; 2.45 50 0 setosa (1.00000 0.00000 0.00000) * ## 3) Petal.Length&gt;=2.45 70 20 versicolor (0.00000 0.71429 0.28571) ## 6) Petal.Length&lt; 4.95 49 1 versicolor (0.00000 0.97959 0.02041) * ## 7) Petal.Length&gt;=4.95 21 2 virginica (0.00000 0.09524 0.90476) * predictions = learner$predict(task, row_ids = 121:150) predictions ## &lt;PredictionClassif&gt; for 30 observations: ## row_id truth response ## 121 virginica virginica ## 122 virginica versicolor ## 123 virginica virginica ## --- ## 148 virginica virginica ## 149 virginica virginica ## 150 virginica virginica # accuracy of our model on the test set of the final 30 rows predictions$score(&quot;classif.acc&quot;) ## classif.acc ## 0.8333 The code examples in this book use a few additional packages that are not installed by default if you install mlr3. To run all examples in the book, install the mlr3book package using the remotes package: remotes::install_github(&quot;mlr-org/mlr3book&quot;, dependencies = TRUE) In most cases you do not want to run all code blocks of the book but just some parts of it. In these cases it is easiest to install the mlr3verse pkg (a wrapper package for the core packages of the mlr3 package framework) and install missing packages for specific sections as needed. remotes::install_github(&quot;mlr-org/mlr3verse&quot;) library(mlr3) Sometimes certain packages of the mlr3verse are ahead of the code examples in the book. If you want to install the state of packages which correspond to the latest published version of the book, use ## [1] remotes::install_github(c(&#39;mlr-org/mlr3@cbb4584&#39;, &#39;mlr-org/mlr3db@d8da02f&#39;, &#39;mlr-org/mlr3filters@dbbc56f&#39;, &#39;mlr-org/mlr3learners@f87c17b&#39;, &#39;mlr-org/mlr3misc@877e5ab&#39;, &#39;mlr-org/mlr3ordinal@c66278d&#39;, &#39;mlr-org/mlr3pipelines@c2b5c5b&#39;, &#39;mlr-org/mlr3spatiotemporal@39c3b5b&#39;, &#39;mlr-org/mlr3survival@25ab232&#39;, &#39;mlr-org/mlr3tuning@7f08e05&#39;, &#39;mlr-org/mlr3viz@d29925a&#39;, &#39;mlr-org/paradox@4c1f5cb&#39;), force = TRUE) "],
["introduction-and-overview.html", "2 Introduction and Overview", " 2 Introduction and Overview The mlr3 package and ecosystem provides a generic, object-oriented, and extensible framework for classification, regression, survival analysis, and other machine learning tasks for the R language. It does not implement any learners itself, but provides a unified interface to many existing learners in R. This unified interface allows to provide functionality to extend and combine existing learners, intelligently select and tune the most appropriate technique for a task, and perform large-scale comparisons that enable meta-learning. Examples of this advanced functionality include hyperparameter tuning, feature selection, and ensemble construction. Parallelization of many operations is natively supported. Target Audience mlr3 provides a domain-specific language for machine learning in R. We target both practitioners who want to quickly apply machine learning algorithms and researchers who want to implement, benchmark, and compare their new methods in a structured environment. The package is a complete rewrite of an earlier version of mlr that leverages many years of experience to provide a state-of-the-art system that is easy to use and extend. It is intended for users who have basic knowledge in machine learning and R and who are interested in complex projects and advanced functionality rather than one-liners for one specific thing. Why a Rewrite? mlr was first released to CRAN in 2013, with the core design and architecture dating back much further. Over time, the addition of many features has led to a considerably more complex design that made it harder to build, maintain, and extend than we had hoped for. With hindsight, we saw that some of the design and architecture changes in mlr made it difficult to support new features, in particular with respect to pipelines. Furthermore, the R ecosystem as well as helpful packages such as data.table have undergone major changes in the meantime. It would have been nearly impossible to integrate all these changes into the original design of mlr. Instead, we decided to start working on a reimplementation in 2018, which resulted in the first release of mlr3 on CRAN in July 2019. The new design and the integration of further and newly developed R packages (R6, future, data.table) makes mlr3 much easier to maintain and use, and more performant compared to mlr. Design Principles We follow the general design principles below in the implementation of the mlr3 package and ecosystem. Backend over frontend. Most packages of the mlr3 ecosystem focus on processing and transforming data, applying machine learning algorithms, and computing results. We do not provide graphical user interfaces (GUIs) and visualizations of data and results is provided in extra packages. Embrace R6, clean object-oriented design, object state-changes, and reference semantics. Embrace data.table for fast and convenient data frame computations. Unify container and result classes as much as possible and provide result data in data.tables. This considerably simplifies the API and allows easy selection and “split-apply-combine” (aggregation) operations. We combine data.table and R6 to place references to non-atomic and compound objects in tables and make heavy use of list columns. Be light on dependencies. One of the main maintenance burdens for mlr was to keep up with changing learner interfaces and behaviour of the many packages it depended on. We require far fewer packages in mlr3 to make installation and maintenance easier. mlr3 requires the following packages: backports: Ensures backward compatibility with older R releases. Developed by members of the mlr3 team. No additional dependencies. checkmate: Fast argument checks. Developed by members of the mlr3 team. No additional dependencies. mlr3misc Miscellaneous functions used in multiple mlr3 extension packages. Developed by the mlr3 team. No additional dependencies. paradox: Description for parameters and parameter sets. Developed by the mlr3 team. No additional dependencies. R6: Reference class objects. No additional dependencies. data.table: Extension of R’s data.frame. No additional dependencies. digest: Hash digests. No additional dependencies. lgr: Logging. No additional dependencies. Metrics: Performance measures. No additional dependencies. mlbench: Collection of machine learning data sets. No additional dependencies. mlr3 provides additional functionality through extra packages: For parallelization, mlr3 utilizes the future and future.apply packages. To capture output, warnings, and exceptions, evaluate and callr can be used. "],
["basics.html", "3 mlr3 Basics", " 3 mlr3 Basics This chapter will teach you the essential building blocks, R6 classes, and operations of mlr3. This includes creating supervised machine learning tasks like classification and regression, training models and getting prediction on new data, and evaluating and comparing different models through cross-validation and benchmarking. A typical machine learning workflow looks like this: The data, which mlr3 encapsulates in tasks, is split into non-overlapping train and test sets to be able to evaluate models objectively — we are interested in models that generalize to new data rather than just memorizing the training data. The training data is given to a machine learning algorithm, called a learner in mlr3, that uses it to build a model of how the features of the data relate to the target values. This model is then used to produce predictions on the test data, which are compared to the ground truth values to assess the quality of the model. mlr3 offers a number of different measures to quantify this quality; usually a numeric score. This process may be repeated several times, each time resampling different train and test sets from the original data set. Multiple resampling iterations allow to get a better generalization performance estimate for a particular type of model by quantifying its performance on different data. The mlr3 package provides R6 classes for the essential building blocks of this machine learning workflow: A task encapsulates the data along with additional information, such as what the prediction target is. A learners encapsulates one of R’s many machine learning algorithms and allows to train models and make predictions. Most learners have hyperparameters that affect their operation. A measure computes a numeric score based on predicted and ground-truth values and their difference. A resampling specifies a series of train and test sets. In many cases, this simple workflow is not sufficient to deal with real-world data, which may require normalization, imputation of missing values, or feature selection. We will cover more complex workflows that allow to do this and even more later in the book. For now, we restrict ourselves to simple workflows like the one above for the sake of clarity. "],
["quick-r6-intro-for-beginners.html", "3.1 Quick R6 Intro for Beginners", " 3.1 Quick R6 Intro for Beginners R6 is one of R’s more recent dialects for object-oriented programming (OO). It addresses shortcomings of earlier OO implementations in R, such as S3, which we used in mlr. If you are not familiar with OO programming, it might take a bit to find your way around, but if you have done OO in another language, R6 should feel familiar. We focus on the parts of R6 that you need to know to use mlr3 here without going into further detail. Objects are created by calling the constructor of an R6Class() object. For example foo = Foo$new(bar = 1) creates a new object of class Foo, setting the bar argument of the constructor to 1. Classes have mutable state which is encapsulated in their fields. Continuing with the previous example, assuming that the constructor sets the public field bar to 1, we can access its value through the dollar operator: foo$bar or foo$bar = 2. In addition to fields, objects expose methods that may allow to inspect the object’s state or retrieve information and perform an action that may change the internal state of the object. As an example, the $train method of a learner changes the internal state by producing and storing a trained model. Objects can have public and private fields and methods. As a user of mlr3, you can only access the public variables and methods – the private are only relevant if you want to change or extend mlr3. R6 variables are references to the actual object in the environment; they do not hold the object itself. For example foo2 = foo does not create a copy of foo and store it in foo2, but only the reference to the actual object. foo and foo2 refer to the same object, and setting foo$bar = 3 will also change foo2$bar to 3. To copy an object, use the $clone() method; use the deep = TRUE argument for nested objects, for example foo2 = foo$clone(deep = TRUE). For more details on R6, have a look at the R6 vignettes. "],
["tasks.html", "3.2 Tasks", " 3.2 Tasks Tasks are objects for the data and additional meta-data for a machine learning problem. The meta-data is for example the name of the target variable (the prediction) for supervised machine learning problems, or the type of the dataset (e.g. a spatial or survival). This information is used for specific operations that can be performed on a task. 3.2.1 Task Types To create a task from a data.frame() or data.table() object, the task type needs to be specified: Classification Task: The target is a label (stored as character()orfactor()) with only few distinct values. → mlr3::TaskClassif Regression Task: The target is a numeric quantity (stored as integer() or double()). → mlr3::TaskRegr Survival Task: The target is the (right-censored) time to an event. → mlr3survival::TaskSurv in add-on package mlr3survival Ordinal Regression Task: The target is ordinal. → mlr3ordinal::TaskOrdinal in add-on package mlr3ordinal Cluster Task: An unsupervised task type; there is no target and the aim is to identify similar groups within the feature space. → Not yet implemented Spatial Task: Observations in the task have spatio-temporal information (e.g. coordinates). → Not yet implemented in add-on package mlr3spatiotemporal 3.2.2 Task Creation As an example, we will create a regression task using the mtcars data set from the package datasets and predict the target &quot;mpg&quot; (miles per gallon). We only consider the first two features in the dataset for brevity. First, we load and prepare the data. data(&quot;mtcars&quot;, package = &quot;datasets&quot;) data = mtcars[, 1:3] str(data) ## &#39;data.frame&#39;: 32 obs. of 3 variables: ## $ mpg : num 21 21 22.8 21.4 18.7 18.1 14.3 24.4 22.8 19.2 ... ## $ cyl : num 6 6 4 6 8 6 8 4 4 6 ... ## $ disp: num 160 160 108 258 360 ... Next, we create the task using the constructor for a regression task object (TaskRegr$new) and give the following information: id: An arbitrary identifier for the task, used in plots and summaries. backend: This parameter allows fine-grained control over how data is accessed. Here, we simply provide the dataset which is automatically converted to a DataBackendDataTable. We could also construct a DataBackend manually. target: The name of the target column for the regression problem. library(mlr3) task_mtcars = TaskRegr$new(id = &quot;cars&quot;, backend = data, target = &quot;mpg&quot;) print(task_mtcars) ## &lt;TaskRegr:cars&gt; (32 x 3) ## * Target: mpg ## * Properties: - ## Features (2): ## * dbl (2): cyl, disp The print() method gives a short summary of the task: it has 32 observations and 3 columns, of which 2 are features. We can also plot the task using the mlr3viz package, which gives a graphical summary of its properties: library(mlr3viz) autoplot(task_mtcars, type = &quot;pairs&quot;) ## Registered S3 method overwritten by &#39;GGally&#39;: ## method from ## +.gg ggplot2 3.2.3 Predefined tasks mlr3 ships with a few predefined machine learning tasks. These are stored in an R6 Dictionary (a key-value store) named mlr3::mlr_tasks. Printing it gives the keys (the names of the datasets): mlr_tasks ## &lt;DictionaryTask&gt; with 9 stored values ## Keys: boston_housing, german_credit, iris, mtcars, pima, sonar, spam, ## wine, zoo We can get a more informative summary of the example tasks by converting the dictionary to a data.table() object: library(data.table) as.data.table(mlr_tasks) ## key task_type nrow ncol lgl int dbl chr fct ord pxc ## 1: boston_housing regr 506 19 0 3 13 0 2 0 0 ## 2: german_credit classif 1000 21 0 0 7 0 12 1 0 ## 3: iris classif 150 5 0 0 4 0 0 0 0 ## 4: mtcars regr 32 11 0 0 10 0 0 0 0 ## 5: pima classif 768 9 0 0 8 0 0 0 0 ## 6: sonar classif 208 61 0 0 60 0 0 0 0 ## 7: spam classif 4601 58 0 0 57 0 0 0 0 ## 8: wine classif 178 14 0 2 11 0 0 0 0 ## 9: zoo classif 101 17 15 1 0 0 0 0 0 To get a task from the dictionary, we use the $get() method from the mlr_tasks class and assign the return value to a new object. For example, to use the iris data set for classification: task_iris = mlr_tasks$get(&quot;iris&quot;) print(task_iris) ## &lt;TaskClassif:iris&gt; (150 x 5) ## * Target: Species ## * Properties: multiclass ## Features (4): ## * dbl (4): Petal.Length, Petal.Width, Sepal.Length, Sepal.Width 3.2.4 Task API All task properties and characteristics can be queried using the task’s public fields and methods (see Task). Methods are also used to change the behavior of the task. 3.2.4.1 Retrieving Data The data stored in a task can be retrieved directly from fields, for example: task_iris$nrow ## [1] 150 task_iris$ncol ## [1] 5 More information can be obtained through methods of the object, for example: task_iris$data() ## Species Petal.Length Petal.Width Sepal.Length Sepal.Width ## 1: setosa 1.4 0.2 5.1 3.5 ## 2: setosa 1.4 0.2 4.9 3.0 ## 3: setosa 1.3 0.2 4.7 3.2 ## 4: setosa 1.5 0.2 4.6 3.1 ## 5: setosa 1.4 0.2 5.0 3.6 ## --- ## 146: virginica 5.2 2.3 6.7 3.0 ## 147: virginica 5.0 1.9 6.3 2.5 ## 148: virginica 5.2 2.0 6.5 3.0 ## 149: virginica 5.4 2.3 6.2 3.4 ## 150: virginica 5.1 1.8 5.9 3.0 In mlr3, each row (observation) has a unique identifier is either an integer or character. These can be passed as arguments to the $data() method to select specific rows. The iris task uses integer row_ids: # iris uses integer row_ids head(task_iris$row_ids) ## [1] 1 2 3 4 5 6 # retrieve data for rows with ids 1, 51, and 101 task_iris$data(rows = c(1, 51, 101)) ## Species Petal.Length Petal.Width Sepal.Length Sepal.Width ## 1: setosa 1.4 0.2 5.1 3.5 ## 2: versicolor 4.7 1.4 7.0 3.2 ## 3: virginica 6.0 2.5 6.3 3.3 The mtcars task on the other hand uses names for its row_ids, encoded as character: task_mtcars = mlr_tasks$get(&quot;mtcars&quot;) head(task_mtcars$row_ids) ## [1] &quot;AMC Javelin&quot; &quot;Cadillac Fleetwood&quot; &quot;Camaro Z28&quot; ## [4] &quot;Chrysler Imperial&quot; &quot;Datsun 710&quot; &quot;Dodge Challenger&quot; # retrieve data for rows with id &quot;Datsun 710&quot; task_mtcars$data(rows = &quot;Datsun 710&quot;) ## mpg am carb cyl disp drat gear hp qsec vs wt ## 1: 22.8 1 1 4 108 3.85 4 93 18.61 1 2.32 Note that the method $data() only allows to read the data and does not modify it. Similarly, each column has an identifier or name. These names are stored in the public slots feature_names and target_names. Here “target” refers to the variable we want to predict and “feature” to the predictors for the task. task_iris$feature_names ## [1] &quot;Petal.Length&quot; &quot;Petal.Width&quot; &quot;Sepal.Length&quot; &quot;Sepal.Width&quot; task_iris$target_names ## [1] &quot;Species&quot; The row_ids and column names can be combined when selecting a subset of the data: # retrieve data for rows 1, 51, and 101 and only select column &quot;Species&quot; task_iris$data(rows = c(1, 51, 101), cols = &quot;Species&quot;) ## Species ## 1: setosa ## 2: versicolor ## 3: virginica To extract the complete data from the task, we can simply convert it to a data.table: summary(as.data.table(task_iris)) ## Species Petal.Length Petal.Width Sepal.Length Sepal.Width ## setosa :50 Min. :1.00 Min. :0.1 Min. :4.30 Min. :2.00 ## versicolor:50 1st Qu.:1.60 1st Qu.:0.3 1st Qu.:5.10 1st Qu.:2.80 ## virginica :50 Median :4.35 Median :1.3 Median :5.80 Median :3.00 ## Mean :3.76 Mean :1.2 Mean :5.84 Mean :3.06 ## 3rd Qu.:5.10 3rd Qu.:1.8 3rd Qu.:6.40 3rd Qu.:3.30 ## Max. :6.90 Max. :2.5 Max. :7.90 Max. :4.40 3.2.4.2 Roles (Rows and Columns) It is possible to assign roles to rows and columns. These roles affect the behavior of the task for different operations and provide additional meta-data for it. For example, the previously-constructed mtcars task has the following column roles: print(task_mtcars$col_roles) ## $feature ## [1] &quot;am&quot; &quot;carb&quot; &quot;cyl&quot; &quot;disp&quot; &quot;drat&quot; &quot;gear&quot; &quot;hp&quot; &quot;qsec&quot; &quot;vs&quot; &quot;wt&quot; ## ## $target ## [1] &quot;mpg&quot; ## ## $label ## character(0) ## ## $order ## character(0) ## ## $groups ## character(0) ## ## $weights ## character(0) To add the row names of mtcars as an additional feature, we first add them to the data table and then recreate the task. # with `keep.rownames`, data.table stores the row names in an extra column &quot;rn&quot; data = as.data.table(mtcars[, 1:3], keep.rownames = TRUE) task = TaskRegr$new(id = &quot;cars&quot;, backend = data, target = &quot;mpg&quot;) # we now have integer row_ids task$row_ids ## [1] 1 2 3 4 5 6 7 8 9 10 11 12 13 14 15 16 17 18 19 20 21 22 23 24 25 ## [26] 26 27 28 29 30 31 32 # there is a new feature called &quot;rn&quot; task$feature_names ## [1] &quot;cyl&quot; &quot;disp&quot; &quot;rn&quot; The row names are now a feature whose values are stored in the column “rn”. We include this here for educational purposes only; in general, there is no point in having a feature that uniquely identifies each row. Further, the character data type will cause problems with many types of machine learning algorithms. The identifier may be useful to label points in plots and identify outliers however. To use the new column for only this purpose, we will change the role of the “rn” column and remove it from the set of active features. We will assign it the “label” role, indicating that it should only be used for labeling points in plots or similar. task$feature_names ## [1] &quot;cyl&quot; &quot;disp&quot; &quot;rn&quot; task$set_col_role(&quot;rn&quot;, new_roles = &quot;label&quot;) # &quot;rn&quot; not listed as feature anymore task$feature_names ## [1] &quot;cyl&quot; &quot;disp&quot; # does not appear when we access the data anymore task$data(rows = 1:2) ## mpg cyl disp ## 1: 21 6 160 ## 2: 21 6 160 task$head(2) ## mpg cyl disp ## 1: 21 6 160 ## 2: 21 6 160 Changing the role does not change the underlying data, but only the view on it – the data is not copied in the code above. The view is changed in-place though, i.e. the task object itself is modified. Just like columns, it is also possible to assign different roles to rows. Rows can have two different roles: Role use: Rows that are generally available for model fitting (although they may also be used as test set in resampling). This is the default role. Role validation: Rows not used for training. Rows that have missing values in the target column during task creation are automatically set to the validation role. There are several reasons to hold some observations back or treat them differently: 1. It is often good practice to validate the final model on an external validation set to identify possible overfitting. 1. Some observations may be unlabeled, e.g. in competitions like Kaggle. These observations cannot be used for training a model, but can be used to get predictions. 3.2.4.3 Task Mutators As shown above, the task methods $set_col_role() and $set_row_role() change the view on the data and can be used to subset the task. The additional convenience method $filter() subsets the task based on row ids and .$select() subsets the task based on feature names. task = mlr_tasks$get(&quot;iris&quot;) task$select(c(&quot;Sepal.Width&quot;, &quot;Sepal.Length&quot;)) # keep only these features task$filter(1:3) # keep only these rows task$head() ## Species Sepal.Length Sepal.Width ## 1: setosa 5.1 3.5 ## 2: setosa 4.9 3.0 ## 3: setosa 4.7 3.2 While the methods discussed above allow to subset the data, the methods $rbind() and $cbind() allow to add extra rows and columns to a task. Again the original data is not changed; the additional rows or columns are only added to the view of the data. task$cbind(data.table(foo = letters[1:3])) # add column foo task$head() ## Species Sepal.Length Sepal.Width foo ## 1: setosa 5.1 3.5 a ## 2: setosa 4.9 3.0 b ## 3: setosa 4.7 3.2 c "],
["learners.html", "3.3 Learners", " 3.3 Learners Objects of class mlr3::Learner provide a unified interface to many popular machine learning algorithms in R. They consist of methods to train and predict a model for a mlr3::Task and provide meta-information about the learners, such as the hyperparameters you can set. The package ships with a minimal set of classification and regression learners to avoid lots of dependencies; some of the most popular learners are supported via the mlr3learners package: (penalized) linear and logistic regression \\(k\\)-Nearest Neighbors regression and classification Linear and Quadratic Discriminant Analysis Naive Bayes Support-Vector machines Gradient Boosting Random Regression Forests and Random Classification Forests Kriging The creation of custom learners is covered in Section 7.1.1. 3.3.1 Predefined Learners Similar to mlr_tasks, the Dictionary mlr_learners can be queried for available learners: library(mlr3learners) mlr_learners ## &lt;DictionaryLearner&gt; with 21 stored values ## Keys: classif.debug, classif.featureless, classif.glmnet, classif.kknn, ## classif.lda, classif.log_reg, classif.naive_bayes, classif.qda, ## classif.ranger, classif.rpart, classif.svm, classif.xgboost, ## regr.featureless, regr.glmnet, regr.kknn, regr.km, regr.lm, ## regr.ranger, regr.rpart, regr.svm, regr.xgboost Each learner has the following information: feature_types: the type of features the learner can deal with. packages: the packages required to train a model with this learner and make predictions. properties: additional properties and capabilities. For example, a learner has the property “missings” if it is able to handle missing feature values, and “importance” if it computes and allows to extract data on the relative importance of the features. predict_types: possible prediction types. For example, a classification learner can predict labels (“response”) or probabilities (“prob”). For a tabular overview of integrated learners, see Section 11.1. You can get a specific learner using its id, listed under key in the dictionary: learner = mlr_learners$get(&quot;classif.rpart&quot;) print(learner) ## &lt;LearnerClassifRpart:classif.rpart&gt; ## * Model: - ## * Parameters: xval=0 ## * Packages: rpart ## * Predict Type: response ## * Feature types: logical, integer, numeric, character, factor, ordered ## * Properties: importance, missings, multiclass, selected_features, ## twoclass, weights All the information in the previous summary table is also accessible in public fields of the learner object, for example id, feature_types, packages, properties, and predict_types. Additionally, predict_type returns the configured predict type of the learner. The field param_set stores a description of the hyperparameters the learner has, their ranges, defaults, and current values: learner$param_set ## ParamSet: ## id class lower upper levels default value ## 1: minsplit ParamInt 1 Inf 20 ## 2: cp ParamDbl 0 1 0.01 ## 3: maxcompete ParamInt 0 Inf 4 ## 4: maxsurrogate ParamInt 0 Inf 5 ## 5: maxdepth ParamInt 1 30 30 ## 6: xval ParamInt 0 Inf 10 0 The set of current hyperparameter values is stored in the values field of the param_set field. You can change the current hyperparameter values by assigning a named list to this field: learner$param_set$values = list(cp = 0.01) learner ## &lt;LearnerClassifRpart:classif.rpart&gt; ## * Model: - ## * Parameters: cp=0.01 ## * Packages: rpart ## * Predict Type: response ## * Feature types: logical, integer, numeric, character, factor, ordered ## * Properties: importance, missings, multiclass, selected_features, ## twoclass, weights The field model stores the model that is produced in the training step. Before the train method is called on a learner object, this field is NULL: learner$model ## NULL "],
["train-predict.html", "3.4 Train &amp; Predict", " 3.4 Train &amp; Predict In this chapter, we explain how tasks and learners can be used to train a model and predict to a new dataset. The concept is demonstrated on a supervised classification using the iris dataset and the rpart learner (classification tree). Additionally, this chapter includes the following use-cases Functional Data Analysis using (WIP) Regression Analysis using (WIP) Survival Analysis using (WIP) Spatial Analysis using (WIP) 3.4.1 Basic concept 3.4.1.1 Creating Task and Learner Objects The first step is to generate the following mlr3 objects from the task dictionary and the learner dictionary, respectively: The classification task task = mlr_tasks$get(&quot;iris&quot;) A learner for the classification tree learner = mlr_learners$get(&quot;classif.rpart&quot;) 3.4.1.2 Setting up the train/test splits of the data (#split-data) It is common to train on a majority of the data. Here we use 80% of all available observations and predict on the remaining 20% observations. For this purpose, we create two index vectors: train_set = sample(task$nrow, 0.8 * task$nrow) test_set = setdiff(seq_len(task$nrow), train_set) 3.4.1.3 Training the learner Next, we train the classification tree on the train set of the iris task using the $train() method of the Learner: learner$train(task, row_ids = train_set) This operation modifies the learner in-place. We can access the stored model via the field $model: print(learner$model) ## n= 120 ## ## node), split, n, loss, yval, (yprob) ## * denotes terminal node ## ## 1) root 120 79 versicolor (0.32500 0.34167 0.33333) ## 2) Petal.Length&lt; 2.45 39 0 setosa (1.00000 0.00000 0.00000) * ## 3) Petal.Length&gt;=2.45 81 40 versicolor (0.00000 0.50617 0.49383) ## 6) Petal.Width&lt; 1.75 44 4 versicolor (0.00000 0.90909 0.09091) * ## 7) Petal.Width&gt;=1.75 37 1 virginica (0.00000 0.02703 0.97297) * 3.4.1.4 Predicting After the model was trained, we use the remaining part of the data for prediction. Remember that we initially split the data in train_set and test_set. prediction = learner$predict(task, row_ids = test_set) print(prediction) ## &lt;PredictionClassif&gt; for 30 observations: ## row_id truth response ## 1 setosa setosa ## 2 setosa setosa ## 3 setosa setosa ## --- ## 145 virginica virginica ## 146 virginica virginica ## 147 virginica virginica The $predict() method of the Learner returns a Prediction object. More precise, as the learner is specialized for classification, a LearnerClassif returns a PredictionClassif object. A prediction objects holds The row ids of the test data, the respective true label of the target column and the respective predictions. The simplest way to extract this information is by converting to a data.table(): head(as.data.table(prediction)) ## row_id truth response ## 1: 1 setosa setosa ## 2: 2 setosa setosa ## 3: 3 setosa setosa ## 4: 7 setosa setosa ## 5: 8 setosa setosa ## 6: 9 setosa setosa For classification, you can also extract the confusion matrix: prediction$confusion ## truth ## response setosa versicolor virginica ## setosa 11 0 0 ## versicolor 0 9 1 ## virginica 0 0 9 3.4.1.4.1 Performance assessment The last step of an modeling is usually the performance assessment where we choose performance measure to quantify the predictions by comparing the predicted labels with the true labels. Available measures are stored in mlr_measures: mlr_measures ## &lt;DictionaryMeasure&gt; with 29 stored values ## Keys: classif.acc, classif.auc, classif.ce, classif.costs, classif.f1, ## classif.fdr, classif.fn, classif.fnr, classif.for, classif.fp, ## classif.fpr, classif.npv, classif.ppv, classif.precision, ## classif.recall, classif.sensitivity, classif.specificity, classif.tn, ## classif.tnr, classif.tp, classif.tpr, oob_error, regr.mae, regr.mse, ## regr.rmse, selected_features, time_both, time_predict, time_train We select the accuracy (classif.acc) and call the method $score() of the Prediction object: measure = mlr_measures$get(&quot;classif.ce&quot;) prediction$score(measure) ## classif.ce ## 0.03333 Note that, if no measure is specified, classification defaults to classification error (classif.ce) and regression defaults to the mean squared error (regr.mse). "],
["resampling.html", "3.5 Resampling", " 3.5 Resampling 3.5.1 Settings In this example we use the iris task and a simple classification tree (package rpart). task = mlr_tasks$get(&quot;iris&quot;) learner = mlr_learners$get(&quot;classif.rpart&quot;) When performing resampling with a dataset, we first need to define which approach should be used. The resampling strategies of mlr3 can be queried using the .$keys() method of the mlr_resamplings dictionary. mlr_resamplings ## &lt;DictionaryResampling&gt; with 7 stored values ## Keys: bootstrap, custom, cv, cv3, holdout, repeated_cv, subsampling Additional resampling methods for special use cases will be available via extension packages, such as mlr3survival for survival analysis or mlr3spatiotemporal for spatial data (still in development). The model fit conducted in the train/predict/score chapter is equivalent to a “holdout”, so let’s consider this one first. resampling = mlr_resamplings$get(&quot;holdout&quot;) print(resampling) ## &lt;ResamplingHoldout&gt; with 1 iterations ## * Instantiated: FALSE ## * Parameters: ratio=0.6667 Note that the Instantianated field is set to FALSE. This means we did not actually apply the strategy on a dataset yet but just performed a dry-run. Applying the strategy on a dataset is done in section next Instantation. By default we get a .66/.33 split of the data. There are two ways how the ratio can be changed: Overwriting the slot in .$param_set$values using a named list. resampling$param_set$values = list(ratio = 0.8) Specifying the resampling parameters directly during construction using the param_vals argument: mlr_resamplings$get(&quot;holdout&quot;, param_vals = list(ratio = 0.8)) ## &lt;ResamplingHoldout&gt; with 1 iterations ## * Instantiated: FALSE ## * Parameters: ratio=0.8 3.5.2 Instantiation So far we just set the stage and selected the resampling strategy. To actually perform the splitting, we need to apply the settings on a dataset. This can be done in two ways: Manually by calling the method .$instantiate() on a Task resampling = mlr_resamplings$get(&quot;cv&quot;, param_vals = list(folds = 3L)) resampling$instantiate(task) resampling$iters ## [1] 3 resampling$train_set(1) ## [1] 2 4 10 11 13 14 16 17 18 21 22 23 33 34 41 42 43 52 ## [19] 61 62 64 66 74 75 77 78 79 81 87 88 89 92 99 100 102 105 ## [37] 110 115 116 119 121 124 128 129 134 137 138 142 147 149 1 3 7 8 ## [55] 9 15 24 27 29 30 31 36 37 38 40 44 46 51 55 57 58 65 ## [73] 68 73 82 83 85 86 91 97 98 103 104 107 109 111 113 114 126 131 ## [91] 132 133 136 140 141 144 145 146 148 150 Automatically by passing the resampling object to resample(). Here, the splitting is done within the resample() call based on the supplied Task. learner1 = mlr_learners$get(&quot;classif.rpart&quot;) # simple classification tree learner2 = mlr_learners$get(&quot;classif.featureless&quot;) # featureless learner, prediction majority class rr1 = resample(task, learner1, resampling) rr2 = resample(task, learner2, resampling) setequal(rr1$resampling$train_set(1), rr2$resampling$train_set(1)) ## [1] TRUE If you want to compare multiple learners, you should use the same resampling per task to reduce the variance of the performance estimation (method 1). If you use method 2 (and do not instantiate manually before), the resampling splits will differ between both runs. If you aim is to compare different Task, Learner or Resampling, you are better off using the benchmark() function. It is basically a wrapper around resample() simplifying the handling of multiple settings. If you discover this only after you’ve run multiple resample() calls, don’t worry - you can transform multiple single ResampleResult objects into a BenchmarkResult (explained later) using the .$combine() method. 3.5.3 Execution With a Task, a Learner and Resampling object we can call resample() and create a ResampleResult object. rr = resample(task, learner, resampling) print(rr) ## &lt;ResampleResult&gt; of 3 iterations ## * Task: iris ## * Learner: classif.rpart ## * Performance: 0.053 [classif.ce] ## * Warnings: 0 in 0 iterations ## * Errors: 0 in 0 iterations Before we go into more detail, let’s change the resampling to a “3-fold cross-validation” to better illustrate what operations are possible with a ResampleResult. Additionally, we tell resample() to keep the fitted models via a control object (see mlr_control()): resampling = mlr_resamplings$get(&quot;cv&quot;, param_vals = list(folds = 3L)) ctrl = mlr_control(store_models = TRUE) rr = resample(task, learner, resampling, ctrl = ctrl) print(rr) ## &lt;ResampleResult&gt; of 3 iterations ## * Task: iris ## * Learner: classif.rpart ## * Performance: 0.060 [classif.ce] ## * Warnings: 0 in 0 iterations ## * Errors: 0 in 0 iterations The following operations are supported with ResampleResult objects: Extract the performance for the individual resampling iterations: rr$performance(&quot;classif.ce&quot;) ## task task_id learner learner_id resampling ## 1: &lt;TaskClassif&gt; iris &lt;LearnerClassifRpart&gt; classif.rpart &lt;ResamplingCV&gt; ## 2: &lt;TaskClassif&gt; iris &lt;LearnerClassifRpart&gt; classif.rpart &lt;ResamplingCV&gt; ## 3: &lt;TaskClassif&gt; iris &lt;LearnerClassifRpart&gt; classif.rpart &lt;ResamplingCV&gt; ## resampling_id iteration prediction classif.ce ## 1: cv 1 &lt;PredictionClassif&gt; 0.06 ## 2: cv 2 &lt;PredictionClassif&gt; 0.06 ## 3: cv 3 &lt;PredictionClassif&gt; 0.06 Extract and inspect the resampling splits: rr$resampling ## &lt;ResamplingCV&gt; with 3 iterations ## * Instantiated: TRUE ## * Parameters: folds=3 rr$resampling$iters ## [1] 3 rr$resampling$test_set(1) ## [1] 2 3 9 12 18 25 26 37 41 42 44 49 50 51 55 57 59 62 65 ## [20] 69 70 73 74 75 76 78 80 83 86 88 94 96 99 104 112 113 118 123 ## [39] 125 130 132 133 135 136 139 142 144 145 146 147 rr$resampling$train_set(3) ## [1] 2 3 9 12 18 25 26 37 41 42 44 49 50 51 55 57 59 62 ## [19] 65 69 70 73 74 75 76 78 80 83 86 88 94 96 99 104 112 113 ## [37] 118 123 125 130 132 133 135 136 139 142 144 145 146 147 5 6 8 11 ## [55] 13 14 17 19 22 23 28 29 30 32 33 34 43 45 46 47 54 56 ## [73] 58 61 63 66 72 77 79 81 85 91 93 103 105 106 107 110 114 117 ## [91] 119 120 124 128 134 138 141 148 149 150 Retrieve the learner of a specific iteration and inspect it: lrn = rr$learners[[1]] lrn$model ## n= 100 ## ## node), split, n, loss, yval, (yprob) ## * denotes terminal node ## ## 1) root 100 63 setosa (0.37000 0.30000 0.33000) ## 2) Petal.Length&lt; 2.6 37 0 setosa (1.00000 0.00000 0.00000) * ## 3) Petal.Length&gt;=2.6 63 30 virginica (0.00000 0.47619 0.52381) ## 6) Petal.Width&lt; 1.65 31 2 versicolor (0.00000 0.93548 0.06452) * ## 7) Petal.Width&gt;=1.65 32 1 virginica (0.00000 0.03125 0.96875) * 3.5.4 Custom resampling Sometimes it is necessary to perform resampling with custom splits. If you want to do that because you are coming from a specific modeling field, take a look first at the mlr3 extension packages to make sure your custom resampling method hasn’t been implemented already. If your custom resampling method is widely used in your field, feel welcome to integrate it into one of the existing mlr3 extension packages or create your own one. A manual resampling instance can be created using the &quot;custom&quot; template from the mlr_resamplings dictionary. resampling = mlr_resamplings$get(&quot;custom&quot;) resampling$instantiate(task, list(c(1:10, 51:60, 101:110)), list(c(11:20, 61:70, 111:120)) ) resampling$iters ## [1] 1 resampling$train_set(1) ## [1] 1 2 3 4 5 6 7 8 9 10 51 52 53 54 55 56 57 58 59 ## [20] 60 101 102 103 104 105 106 107 108 109 110 resampling$test_set(1) ## [1] 11 12 13 14 15 16 17 18 19 20 61 62 63 64 65 66 67 68 69 ## [20] 70 111 112 113 114 115 116 117 118 119 120 "],
["benchmarking.html", "3.6 Benchmarking", " 3.6 Benchmarking Comparing the performance of different learners on multiple tasks and/or different resampling schemes is a recurrent task. This operation is usually referred to as “benchmarking” in the field of machine-learning. mlr3 offers the benchmark() function for convenience. 3.6.1 Design Creation In mlr3 we require you to supply a “design” of your benchmark experiment. By “design” we essentially mean the matrix of settings you want to execute. A “design” consists of Task, Learner and Resampling. Additionally, you can supply different Measure along side. Here, we call benchmark() to perform a single holdout split on a single task and two learners. We use the expand_grid() function to create an exhaustive design and properly instantiate the resampling: library(data.table) design = expand_grid( tasks = mlr_tasks$mget(&quot;iris&quot;), learners = mlr_learners$mget(c(&quot;classif.rpart&quot;, &quot;classif.featureless&quot;)), resamplings = mlr_resamplings$mget(&quot;holdout&quot;) ) print(design) ## task learner resampling ## 1: &lt;TaskClassif&gt; &lt;LearnerClassifRpart&gt; &lt;ResamplingHoldout&gt; ## 2: &lt;TaskClassif&gt; &lt;LearnerClassifFeatureless&gt; &lt;ResamplingHoldout&gt; bmr = benchmark(design) Note that the holdout splits have been automatically instantiated for each row of the design. As a result, the rpart learner used a different training set than the featureless learner. However, for comparison of learners you usually want the learners to see the same splits into train and test sets. To overcome this issue, the resampling strategy needs to be manually instantiated before creating the design. While the interface of benchmark() allows full flexibility, the creation of such design tables can be tedious. Therefore, mlr3 provides a convenience function to quickly generate design tables and instantiate resampling strategies in an exhaustive grid fashion: expand_grid(). # get some example tasks tasks = mlr_tasks$mget(c(&quot;pima&quot;, &quot;sonar&quot;, &quot;spam&quot;)) # get some measures: accuracy (acc) and area under the curve (auc) measures = mlr_measures$mget(c(&quot;classif.acc&quot;, &quot;classif.auc&quot;)) # get a featureless learner and a classification tree # let both learners predict probabilities learners = mlr_learners$mget(c(&quot;classif.featureless&quot;, &quot;classif.rpart&quot;), predict_type = &quot;prob&quot;) # compare via 3-fold cross validation resamplings = mlr_resamplings$mget(&quot;cv3&quot;) # create a BenchmarkDesign object design = expand_grid(tasks, learners, resamplings) print(design) ## task learner resampling ## 1: &lt;TaskClassif&gt; &lt;LearnerClassifFeatureless&gt; &lt;ResamplingCV&gt; ## 2: &lt;TaskClassif&gt; &lt;LearnerClassifRpart&gt; &lt;ResamplingCV&gt; ## 3: &lt;TaskClassif&gt; &lt;LearnerClassifFeatureless&gt; &lt;ResamplingCV&gt; ## 4: &lt;TaskClassif&gt; &lt;LearnerClassifRpart&gt; &lt;ResamplingCV&gt; ## 5: &lt;TaskClassif&gt; &lt;LearnerClassifFeatureless&gt; &lt;ResamplingCV&gt; ## 6: &lt;TaskClassif&gt; &lt;LearnerClassifRpart&gt; &lt;ResamplingCV&gt; 3.6.2 Execution and Aggregation of Results After the benchmark design is ready, we can directly call benchmark() # execute the benchmark bmr = benchmark(design) Note that we did not instantiate the resampling instance, but expand_grid() took care of it for us: each resampling strategy is instantiated for each task during the construction of the exhaustive grid. After the benchmark, we can calculate and aggregate the performance with .$aggregate(): bmr$aggregate(measures) ## hash resample_result task_id learner_id resampling_id ## 1: fc190d98658b7cf8 &lt;ResampleResult&gt; pima classif.featureless cv3 ## 2: c833fe5785823951 &lt;ResampleResult&gt; pima classif.rpart cv3 ## 3: dc4e611a860a26c3 &lt;ResampleResult&gt; sonar classif.featureless cv3 ## 4: 7f743903470bf9ba &lt;ResampleResult&gt; sonar classif.rpart cv3 ## 5: 3f9b4e3b2e34fd43 &lt;ResampleResult&gt; spam classif.featureless cv3 ## 6: 78c42fcfcc3a97bf &lt;ResampleResult&gt; spam classif.rpart cv3 ## classif.acc classif.auc ## 1: 0.6510 0.5000 ## 2: 0.7331 0.7652 ## 3: 0.5337 0.5000 ## 4: 0.7114 0.7851 ## 5: 0.6060 0.5000 ## 6: 0.8978 0.8988 We can aggregate the results further. For example, we might be interested which learner performed best over all tasks. Since we have data.table object here, we could do the following: bmr$aggregate(measures)[, list(acc = mean(classif.acc), auc = mean(classif.auc)), by = &quot;learner_id&quot;] ## learner_id acc auc ## 1: classif.featureless 0.5969 0.5000 ## 2: classif.rpart 0.7808 0.8164 Alternatively, we can also use the tidyverse approach: library(&quot;magrittr&quot;) requireNamespace(&quot;dplyr&quot;) requireNamespace(&quot;tibble&quot;) bmr$aggregate(measures) %&gt;% tibble::as_tibble() %&gt;% dplyr::group_by(learner_id) %&gt;% dplyr::summarise(acc = mean(classif.acc), auc = mean(classif.auc)) ## # A tibble: 2 x 3 ## learner_id acc auc ## &lt;chr&gt; &lt;dbl&gt; &lt;dbl&gt; ## 1 classif.featureless 0.597 0.5 ## 2 classif.rpart 0.781 0.816 Unsurprisingly, the classification tree outperformed the featureless learner. 3.6.3 Converting specific benchmark objects to resample objects A BenchmarkResult object is essentially a collection of multiple ResampleResult objects. As these are stored in a column of the aggregated data.table(), we can easily extract them: tab = bmr$aggregate(measures) rr = tab[task_id == &quot;spam&quot; &amp; learner_id == &quot;classif.rpart&quot;]$resample_result[[1]] print(rr) ## &lt;ResampleResult&gt; of 3 iterations ## * Task: spam ## * Learner: classif.rpart ## * Performance: 0.102 [classif.ce] ## * Warnings: 0 in 0 iterations ## * Errors: 0 in 0 iterations We can now investigate this resampling and even single resampling iterations using one of the approach shown in the previous section: rr$aggregate(measure) ## classif.ce ## 0.1022 # get the iteration with worst AUC worst = rr$performance(measures) %&gt;% tibble::as_tibble() %&gt;% dplyr::slice(which.min(classif.auc)) %&gt;% dplyr::select(classif.auc, iteration) # get the corresponding learner lrn = rr$learners[[worst$iteration]] lrn ## &lt;LearnerClassifRpart:classif.rpart&gt; ## * Model: - ## * Parameters: xval=0 ## * Packages: rpart ## * Predict Type: prob ## * Feature types: logical, integer, numeric, character, factor, ordered ## * Properties: importance, missings, multiclass, selected_features, ## twoclass, weights "],
["binary.html", "3.7 Binary classification", " 3.7 Binary classification Classification problems with a target variable containing only two classes are called “binary”. For such, you can specify the positive class within the classification task object during task creation. If not explicitly set during construction, the positive class defaults to the first level of the target variable. # during construction data(&quot;Sonar&quot;, package = &quot;mlbench&quot;) task = TaskClassif$new(id = &quot;Sonar&quot;, Sonar, target = &quot;Class&quot;, positive = &quot;R&quot;) # switch positive class to level &#39;M&#39; task$positive = &quot;M&quot; 3.7.1 ROC Curve and Thresholds ROC Analysis – which stands for “receiver operating characteristics” – is a subfield of machine learning which studies the evaluation of binary prediction systems. We saw earlier that we can retrieve the confusion matrix of a Prediction by accessing the $confusion field: learner = mlr_learners$get(&quot;classif.rpart&quot;, predict_type = &quot;prob&quot;) pred = learner$train(task)$predict(task) C = pred$confusion print(C) ## truth ## response M R ## M 95 10 ## R 16 87 The confusion matrix contains the counts of correct and incorrect class assignments, grouped by class labels. In the columns are the true (observed) labels, in the rows are the predicted labels. The positive is always the first row or column in the confusion matrix. Thus, the element in \\(C_{11}\\) is the number of times our model predicted the positive class and was right about it. Analogously, the element in \\(C_{22}\\) is the number of times our model predicted the negative class and was also right about it. The elements on the diagonal are called True Positives (TP) and True Negatives (TN). The element \\(C_{12}\\) is the number of times we falsely predicted a positive label, and is called False Positives (FP). The element \\(C_{21}\\) is called False Negatives (FN). We can now normalize in rows and columns of the confusion matrix to derive several informative metrics: True Positive Rate (TPR): How many of the true positives did we predict as positive? True Negative Rate (TNR): How many of the true negatives did we predict as negative? Positive Predictive Value PPV: If we predict positive how likely is it a true positive? Negative Predictive Value NPV: If we predict negative how likely is it a true negative? Source: Wikipedia It is difficult to achieve a high TPR and low FPR simultaneously, so we use them for constructing the ROC Curve. We characterize a classifier by its TPR and FPR values and plot them in a coordinate system. The best classifier lies on the top-left corner while the diagonal is the worst, where classifiers produce random labels (with different proportions). If each positive \\(x\\) will be randomly classified with 25% as “positive”, we get a TPR of 0.25. If we assign each negative \\(x\\) randomly to “positive” we get a FPR of 0.25. In practice, we should never obtain a classifier below the diagonal, as inverting the predicted labels will result in a reflection at the diagonal. A scoring classifier is a model which outputs scores or probabilities, instead of discrete labels, and nearly all modern classifiers can do that. Thresholding flexibly converts measured probabilities to labels. Predict \\(1\\) (positive class) if \\(\\hat{f}(x) &gt; \\tau\\) else predict \\(0\\). Normally we could use \\(\\tau = 0.5\\) to convert, but for imbalanced or cost-sensitive situations another threshold could be better. After thresholding, any metric defined on labels can be used. For mlr3 prediction objects, the ROC curve can easily be created using third party packages such as the precrec package: library(precrec) evaluated = evalmod( scores = pred$prob[, task$positive], label = pred$truth, posclass = task$positive ) # TPR vs FPR / Sensitivity vs (1 - Specificity) ggplot2::autoplot(evaluated, curvetype = &quot;ROC&quot;) # Precision vs Recall ggplot2::autoplot(evaluated, curvetype = &quot;PRC&quot;) 3.7.2 Threshold Tuning "],
["model-optim.html", "4 Model Optimization ", " 4 Model Optimization "],
["tuning.html", "4.1 Hyperparameter Tuning", " 4.1 Hyperparameter Tuning Hyperparameter tuning is supported via the extension package mlr3tuning. The heart of mlr3tuning are the R6 classes mlr3tuning::PerformanceEvaluator and the Tuner* classes. They store the settings, perform the tuning and save the results. 4.1.1 The Performance Evaluator class The mlr3tuning::PerformanceEvaluator class requires the following inputs from the user: Task Learner Resampling Measure paradox::ParamSet It is similar to resample and benchmark with the additional requirement of a “Parameter Set” (paradox::ParamSet ) specifying the Hyperparameters of the given learner which should be optimized. An exemplary definition could looks as follows: library(mlr3tuning) task = mlr_tasks$get(&quot;iris&quot;) learner = mlr_learners$get(&quot;classif.rpart&quot;) resampling = mlr_resamplings$get(&quot;holdout&quot;) measures = mlr_measures$mget(&quot;classif.ce&quot;) param_set = paradox::ParamSet$new(params = list( paradox::ParamDbl$new(&quot;cp&quot;, lower = 0.001, upper = 0.1), paradox::ParamInt$new(&quot;minsplit&quot;, lower = 1, upper = 10))) pe = PerformanceEvaluator$new( task = task, learner = learner, resampling = resampling, measures = measures, param_set = param_set ) Evaluation of Single Parameter Settings Using the method .$eval(), the mlr3tuning::PerformanceEvaluator is able to tune a specific set of hyperparameters on the given inputs. The parameters have to be handed over wrapped in a data.table: pe$eval(data.table::data.table(cp = 0.05, minsplit = 5)) The results are stored in a BenchmarkResult class within the pe object. Note that this is the “bare bone” concept of using hyperparameters during Resampling. Usually you want to optimize the parameters in an automated fashion. 4.1.2 Tuning Hyperparameter Spaces Most often you do not want to only check the performance of fixed hyperparameter settings sequentially but optimize the outcome using different hyperparameter choices in an automated way. To achieve this, we need a definition of the search spaced that should be optimized. Let’s use again the space we defined in the introduction. paradox::ParamSet$new(params = list( paradox::ParamDbl$new(&quot;cp&quot;, lower = 0.001, upper = 0.1), paradox::ParamInt$new(&quot;minsplit&quot;, lower = 1, upper = 10))) To start the tuning, we still need to select how the optimization should take place - in other words, we need to choose the optimization algorithm. The following algorithms are currently implemented in mlr3: Grid Search (mlr3tuning::TunerGridSearch) Random Search (mlr3tuning::TunerRandomSearch) (Bergstra and Bengio 2012) Generalized Simulated Annealing (mlr3tuning::TunerGenSA) In this example we will use a simple “Grid Search”. Since we have only numeric parameters and specified the upper and lower bounds for the search space, mlr3tuning::TunerGridSearch will create a grid of equally-sized steps. By default, mlr3tuning::TunerGridSearch creates ten equal-sized steps. The number of steps can be changed with the resolution argument. In this example we use 15 steps and create a new class mlr3tuning::TunerGridSearch using the mlr3tuning::PerformanceEvaluator pe and the resolution. tuner_gs = TunerGridSearch$new(pe, resolution = 15) Oh! The error message tells us that we need to specify an addition argument called terminator. 4.1.3 Defining the Terminator What is a “Terminator”? The mlr3tuning::Terminator defines when the tuning should be stopped. This setting can have various instances: Terminate after a given time (mlr3tuning::TerminatorRuntime) Terminate after a given amount of iterations (mlr3tuning::TerminatorEvaluations) Terminate after a specific performance is reached (mlr3tuning::Performance) Often enough one termination criterion is not enough. For example, you will not know beforehand if all of your given evaluations will finish within a given amount of time. This highly depends on the Learner and the paradox::ParamSet given. However, you might not want to exceed a certain tuning time for each learner. In this case, it makes sense to combine both criteria using mlr3tuning::TerminatorMultiplexer. Tuning will stop as soon as one Terminator signals to be finished. In the following example we create two terminators and then combine them into one: tr = TerminatorRuntime$new(5) te = TerminatorEvaluations$new(max_evaluations = 50) tm = TerminatorMultiplexer$new(list(te, tr)) tm 4.1.4 Executing the Tuning Now that we have all required inputs (paradox::ParamSet, mlr3tuning::Terminator and the optimization algorithm), we can perform the hyperparameter tuning. The first step is to create the respective “Tuner” class, here mlr3tuning::TunerGridSearch. tuner_gs = TunerGridSearch$new(pe = pe, terminator = tm, resolution = 15) After it has been initialized, we can call its member function .$tune() to run the tuning. tuner_gs$tune() .$tune() simply performs a benchmark on the parameter values generated by the tuner and writes the results into a BenchmarkResult object which is stored in field .$bmr of the mlr3tuning::PerformanceEvaluator object that we passed to it. 4.1.5 Inspecting Results During the .$tune() call not only the BenchmarkResult output was written to the .$bmr slot of the mlr3tuning::PerformanceEvaluator but also the mlr3tuning::Terminator got updated. We can take a look by directly printing the mlr3tuning::Terminator object: print(tm) We can easily see that all evaluations were executed before the time limit kicked in. Now let’s take a closer look at the actual tuning result. It can be queried using .$tune_result() from the respective mlr3tuning::Tuner class that generated it. Internally, the function scrapes the data from the BenchmarkResult that was generated during tuning and stored in .$pe$bmr. tuner_gs$tune_result() It returns the scored performance and the values of the optimized hyperparameters. Note that each measure “knows” if it was minimized or maximized during tuning: measures$classif.ce$minimize A summary of the BenchmarkResult created by the tuning can be queried using the .$aggregate() function of the Tuner class. tuner_gs$aggregate() Now the optimized hyperparameters can be used to create a new Learner and train it on the full dataset. task = mlr_tasks$get(&quot;iris&quot;) learner = mlr_learners$get(&quot;classif.rpart&quot;, param_vals = list( xval = tuner_gs$tune_result()$values$xval, cp = tuner_gs$tune_result()$values$cp) ) learner$train(task) 4.1.6 Automating the Tuning The steps shown above can be executed in a more convenient way using the mlr3tuning::AutoTuner class. This class gathers all the steps from above into a single call and uses the optimized hyperparameters from the tuning to create a new learner. Requirements: Task Learner Resampling Measure Parameter Set Terminator Tuning method Tuning settings (optional) task = mlr_tasks$get(&quot;iris&quot;) learner = mlr_learners$get(&quot;classif.rpart&quot;) resampling = mlr_resamplings$get(&quot;holdout&quot;) measures = mlr_measures$mget(&quot;classif.ce&quot;) param_set = paradox::ParamSet$new( params = list(paradox::ParamDbl$new(&quot;cp&quot;, lower = 0.001, upper = 0.1))) terminator = TerminatorEvaluations$new(5) at = mlr3tuning::AutoTuner$new(learner, resampling, measures = measures, param_set, terminator, tuner = TunerGridSearch, tuner_settings = list(resolution = 10L)) at$train(task) at$learner Note that you can also pass the AutoTuner to resample() or benchmark(). By doing so, the AutoTuner will do its resampling for tuning on the training set of the respective split of the outer resampling. This is called nested resampling. To compare the tuned learner with the learner using its default, we can use benchmark(). bmr = benchmark(expand_grid(&quot;iris&quot;, list(at, &quot;classif.rpart&quot;), &quot;cv3&quot;)) bmr$aggregate(measures) 4.1.7 Summary Use PerformanceEvaluator$eval() for manual execution of parameters in Resampling Define a Tuner of your choice using a mlr3tuning::PerformanceEvaluator with the following inputs Learner Task Resampling paradox::ParamSet mlr3tuning::Terminator Inspect the tuning result using Tuner*$tune_result() Get a summary view of all runs based on the BenchmarkResult object created during tuning using Tuner*$aggregate() The AutoTuner class is a convenience wrapper that gathers all steps into one function References "],
["fs.html", "4.2 Feature Selection / Filtering", " 4.2 Feature Selection / Filtering Often, data sets include a large number of features. The technique of extracting a subset of relevant features is called “feature selection”. Feature selection can enhance the interpretability of the model, speed up the learning process and improve the learner performance. Different approaches exist to identify the relevant features. In the literature two different approaches exist: One is called “Filtering” and the other approach is often referred to as “feature subset selection” or “wrapper methods”. What are the differences (Chandrashekar and Sahin 2014)? Filter: An external algorithm computes a rank of the variables (e.g. based on the correlation to the response). Then, features are subsetted by a certain criteria, e.g. an absolute number or a percentage of the number of variables. The selected features will then be used to fit a model (with optional hyperparameters selected by tuning). This calculation is usually cheaper than “feature subset selection” in terms of computation time. Feature subset selection: Here, no ranking of features is done. Features are selected by a (random) subset of the data. Then, a model is fit and the performance is checked. This is done for a lot of feature combinations in a CV setting and the best combination is reported. This method is very computational intense as a lot of models are fitted. Also, strictly all these models would need to be tuned before the performance is estimated which would require an additional nested level in a CV setting. After all this, the selected subset of features is again fitted (with optional hyperparameters selected by tuning). There is also a third approach which can be attributed to the “filter” family: The embedded feature-selection methods of some Learner. Read more about how to use these in section embedded feature-selection methods. Ensemble filters built upon the idea of stacking single filter methods. These are not yet implemented. All feature selection related functionality is implemented via the extension package mlr3filters. 4.2.1 Filters Filter methods assign an importance value to each feature. Based on these values the features can be ranked and a feature subset can be selected. There is a list of all implemented filter methods in the Appendix. 4.2.1.1 Calculating filter values Currently, only classification and regression tasks are supported. The first step it to create a new R object using the class of the desired filter method. Each object of class Filter has a .$calculate() method which calculates the ranking of the features. This method can be executed manually but is also run implicitly in the background if the actual filter functions (.$filter_nfeat(), .$filter_frac(), .$filter_cutoff()) are executed. All functions require a Task and return both the calculated filter values for all features and subset the supplied task: library(mlr3filters) filter = FilterJMIM$new() task = mlr_tasks$get(&quot;iris&quot;) filter$calculate(task) as.data.table(filter) ## feature score ## 1: Sepal.Length 1.0401 ## 2: Petal.Width 0.9894 ## 3: Petal.Length 0.9881 ## 4: Sepal.Width 0.8314 4.2.2 Wrapper Methods Work in progress :) - via package mlr3fswrap 4.2.3 Embedded Methods All Learner with the property “importance” come with integrated feature selection methods. You can find a list of all learners with this property in the Appendix. For some learners the desired filter method needs to be set during learner creation. For example, learner classif.ranger (in mlr3learners comes with multiple integrated methods. See the help page of ranger::ranger. To use method “impurity”, you need to set it via the param_vals argument: library(mlr3learners) lrn = mlr_learners$get(&quot;classif.ranger&quot;, param_vals = list(importance = &quot;impurity&quot;)) Now you can use the mlr3filters::FilterImportance class for algorithm-embedded methods to filter a Task. task = mlr_tasks$get(&quot;iris&quot;) filter = FilterImportance$new(learner = lrn) filter$calculate(task) head(as.data.table(filter), 3) ## feature score ## 1: Petal.Width 44.789 ## 2: Petal.Length 42.370 ## 3: Sepal.Length 9.937 4.2.4 Ensemble Methods Work in progress :) References "],
["nested-resampling.html", "4.3 Nested Resampling", " 4.3 Nested Resampling 4.3.1 Introduction In order to obtain unbiased performance estimates for a learners, all parts of the model building (preprocessing and model selection steps) should be included in the resampling, i.e., repeated for every pair of training/test data. For steps that themselves require resampling like hyperparameter tuning or feature-selection (via the wrapper approach) this results in two nested resampling loops. The graphic above illustrates nested resampling for parameter tuning with 3-fold cross-validation in the outer and 4-fold cross-validation in the inner loop. In the outer resampling loop, we have three pairs of training/test sets. On each of these outer training sets parameter tuning is done, thereby executing the inner resampling loop. This way, we get one set of selected hyperparameters for each outer training set. Then the learner is fitted on each outer training set using the corresponding selected hyperparameters and its performance is evaluated on the outer test sets. In mlr3, you can get nested resampling for free without programming any looping by using the mlr3tuning::AutoTuner class. This works as follows: Generate a wrapped Learner via class mlr3tuning::AutoTuner or mlr3filters::AutoSelect (not yet implemented). Specify all required settings - see section “Automating the Tuning” for help. Call function resample() or benchmark() with the created Learner. You can freely combine different inner and outer resampling strategies. A common setup is prediction and performance evaluation on a fixed outer test set. This can be achieved by passing the Resampling strategy (mlr_resamplings$get(&quot;holdout&quot;)) as the outer resampling instance to either resample() or benchmark(). The inner resampling strategy could be a cross-validation one (mlr_resamplings$get(&quot;cv&quot;)) as the sizes of the outer training sets might differ. Per default, the inner resample description is instantiated once for every outer training set. Nested resampling is computationally expensive. For this reason in the examples shown below we use relatively small search spaces and a low number of resampling iterations. In practice, you normally have to increase both. As this is computationally intensive you might want to have a look at section parallelization. 4.3.2 Execution To optimize hyperparameters or conduct features-selection in a nested resampling you need to create learners using either the mlr3tuning::AutoTuner class, or the mlr3filters::AutoSelect class (not yet implemented). We use the example from section “Automating the Tuning” and pipe the resulting learner into a resample() call. task = mlr_tasks$get(&quot;iris&quot;) learner = mlr_learners$get(&quot;classif.rpart&quot;) resampling = mlr_resamplings$get(&quot;holdout&quot;) measures = mlr_measures$mget(&quot;classif.ce&quot;) param_set = paradox::ParamSet$new( params = list(paradox::ParamDbl$new(&quot;cp&quot;, lower = 0.001, upper = 0.1))) terminator = TerminatorEvaluations$new(5) at = mlr3tuning::AutoTuner$new(learner, resampling, measures = measures, param_set, terminator, tuner = TunerGridSearch, tuner_settings = list(resolution = 10L)) at$store_bmr = TRUE Now construct the resample() call: resampling_outer = mlr_resamplings$get(&quot;cv3&quot;) rr = resample(task = task, learner = at, resampling = resampling_outer) 4.3.3 Evaluation With the created ResampleResult we can now inspect the executed resampling iterations more closely. See also section Resampling for more detailed information about ResampleResult objects. For example, we can query the aggregated performance result: rr$aggregate() We can also query the tuning result of any learner using the $tune_path field of the AutoTuner class stored in the ResampleResult container rr. Note: This only works if store_bmr was set to TRUE in the AutoTuner object. rr$learners[[1]]$tune_path Check for any errors in the folds during execution (if there is not output, warnings or errors recorded, this is an empty data.table(): rr$errors Or take a look at the confusion matrix of the joined predictions: rr$prediction$confusion "],
["pipelines.html", "5 Pipelines", " 5 Pipelines mlr3pipelines is a dataflow programming toolkit for machine learning in R utilizing the mlr3pipelines package. A more in-deptth and technically oriented vignette can be found in the mlr3pipeline vignette. Machine learning workflows can be written as directed “Graphs”/“Pipelines” that represent data flows between preprocessing, model fitting, and ensemble learning units in an expressive and intuitive language. We will most often use the term “Graph” in this manual but it can interchangeably be used with “pipeline” or “workflow”. Single computational steps can be represented as so-called PipeOps, which can then be connected with directed edges in a Graph. The scope of mlr3pipelines is still growing. Currently supported features are: Simple data manipulation and preprocessing operations, e.g. PCA, feature filtering, imputation Task subsampling for speed and outcome class imbalance handling mlr3 Learner operations for prediction and stacking Ensemble methods and aggregation of predictions Additionally, we implement several meta operators that can be used to construct powerful pipelines: - Simultaneous path branching (data going both ways) - Alternative path branching (data going one specific way, controlled by hyperparameters) An extensive introduction to creating custom PipeOps (PO’s) can be found in the technical introduction. Using methods from mlr3tuning, it is even possible to simultaneously optimize parameters of multiple processing units. A predecessor to this package is the mlrCPO package, which works with mlr 2.x. Other packages that provide, to varying degree, some preprocessing functionality or machine learning domain specific language, are the caret package and the related recipies project, and the dplyr package. An example for a Pipeline that can be constructed using mlr3pipelines is depicted below: "],
["the-building-blocks-pipeops.html", "5.1 The Building Blocks: PipeOps", " 5.1 The Building Blocks: PipeOps The building blocks of mlr3pipelines are PipeOp-objects (PO). They can be constructed directly using PipeOp&lt;NAME&gt;$new(), but the recommended way is to retrieve them from the mlr_pipeops dictionary. library(&quot;mlr3pipelines&quot;) as.data.table(mlr_pipeops) #&gt; key packages input.num output.num input.type.train #&gt; 1: apply 1 1 Task #&gt; 2: balancesample 1 1 Task #&gt; 3: branch 1 NA * #&gt; 4: chunk 1 NA Task #&gt; 5: copy 1 NA * #&gt; 6: encode stats 1 1 Task #&gt; 7: featureunion NA 1 Task #&gt; 8: filter 1 1 Task #&gt; 9: impute 1 1 Task #&gt; 10: learner 1 1 TaskClassif #&gt; 11: learner_cv 1 1 TaskClassif #&gt; 12: majorityvote stats NA 1 NULL #&gt; 13: modelavg NA 1 NULL #&gt; 14: mutate 1 1 Task #&gt; 15: nop 1 1 * #&gt; 16: pca 1 1 Task #&gt; 17: scale 1 1 Task #&gt; 18: select 1 1 Task #&gt; 19: subsample 1 1 Task #&gt; 20: unbranch NA 1 * #&gt; input.type.predict output.type.train output.type.predict #&gt; 1: Task Task Task #&gt; 2: Task Task Task #&gt; 3: * * * #&gt; 4: Task Task Task #&gt; 5: * * * #&gt; 6: Task Task Task #&gt; 7: Task Task Task #&gt; 8: Task Task Task #&gt; 9: Task Task Task #&gt; 10: TaskClassif NULL PredictionClassif #&gt; 11: TaskClassif TaskClassif TaskClassif #&gt; 12: PredictionClassif NULL PredictionClassif #&gt; 13: PredictionRegr NULL PredictionRegr #&gt; 14: Task Task Task #&gt; 15: * * * #&gt; 16: Task Task Task #&gt; 17: Task Task Task #&gt; 18: Task Task Task #&gt; 19: Task Task Task #&gt; 20: * * * Single POs can be created using mlr_pipeops$get(&lt;name&gt;). pca = mlr_pipeops$get(&quot;pca&quot;) Some POs require additional arguments for construction. learner = mlr_pipeops$get(&quot;learner&quot;) # Error in cast_from_dict(learner, &quot;Learner&quot;, mlr_learners, clone, FALSE) : argument &quot;learner&quot; is missing, with no default learner = mlr_pipeops$get(&quot;learner&quot;, mlr_learners$get(&quot;classif.ranger&quot;)) Hyperparameters of POs can be set through the param_vals argument. Here we set the fraction of features for a filter. filter = mlr_pipeops$get(&quot;filter&quot;, filter = mlr3filters::FilterVariance$new(), param_vals = list(filter.frac = 0.5)) The figure below shows an exemplary PipeOp: It takes an input, transforms it during .$train and .$predict and returns data. A PipeOperator "],
["pipe-operator.html", "5.2 The Pipeline Operator: %&gt;&gt;%", " 5.2 The Pipeline Operator: %&gt;&gt;% Although it is possible to create intricate Graphs with edges going all over the place (as long as no loops are introduced), there is usually a clear direction of flow between “layers” in the Graph. It is therefore convenient to build up a Graph from layers, which can be done using the %&gt;&gt;% (“double-arrow”) operator. It takes either a PipeOp or a Graph on each of its sides and connects all of the outputs of its left-hand side to one of the inputs each of its right-hand side–the number of inputs therefore must match the number of outputs. gr = mlr_pipeops$get(&quot;scale&quot;) %&gt;&gt;% mlr_pipeops$get(&quot;pca&quot;) gr$plot(html = TRUE) %&gt;% visInteraction(zoomView = FALSE) # disable zoom "],
["pipe-nodes-edges-graphs.html", "5.3 Nodes, Edges and Graphs", " 5.3 Nodes, Edges and Graphs POs are combined into Graph s. The manual way (= hard way) to construct a Graph is to create an empty one first, fill it with POs, and then connect edges between the POs. POs are identified by their $id. Note that the operations all modify the object in-place and return the object itself, so multiple modifications can be chained. For this example we use the “pca” PO defined above and a new PO named “mutate”. The latter creates a new feature from existing variables. mutate = mlr_pipeops$get(&quot;mutate&quot;) graph = Graph$new()$ add_pipeop(mutate)$ add_pipeop(filter)$ add_edge(&quot;mutate&quot;, &quot;variance&quot;) # add connection mutate -&gt; filter The much quicker way is to use the %&gt;&gt;% operator to chain POs or Graph s. The same result as above can be achieved by doing graph = mutate %&gt;&gt;% filter Now the Graph can be inspected using its $plot() function: graph$plot(html = TRUE) %&gt;% visInteraction(zoomView = FALSE) # disable zoom Chaining multiple POs of the same kind If multiple POs of the same kind should be chained it is necessary to change the id to avoid name clashes. This can be done by either accessing the $id slot or during construction. graph$add_pipeop(mlr_pipeops$get(&quot;pca&quot;)) graph$add_pipeop(mlr_pipeops$get(&quot;pca&quot;, id = &quot;pca2&quot;)) "],
["pipe-modeling.html", "5.4 Modeling", " 5.4 Modeling The main purpose of a Graph is to build combined preprocessing and model fitting pipelines that can be used as mlr3 Learner. In the following we chain two preprocessing tasks mutate (creation of a new feature) filter (filtering the dataset) and then chain a PO learner to train and predict on the modified dataset. graph = mutate %&gt;&gt;% filter %&gt;&gt;% mlr_pipeops$get(&quot;learner&quot;, learner = mlr_learners$get(&quot;classif.rpart&quot;)) Until here we defined the main pipeline stored in Graph. Now we can train and predict the pipeline. task = mlr_tasks$get(&quot;iris&quot;) graph$train(task) #&gt; $classif.rpart.output #&gt; NULL graph$predict(task) #&gt; $classif.rpart.output #&gt; &lt;PredictionClassif&gt; for 150 observations: #&gt; row_id truth response #&gt; 1 setosa setosa #&gt; 2 setosa setosa #&gt; 3 setosa setosa #&gt; --- #&gt; 148 virginica virginica #&gt; 149 virginica virginica #&gt; 150 virginica virginica Rather than calling $train() and $predict() manually, we can put the pipeline Graph into a GraphLearner object. A GraphLearner encapsulates the whole pipeline (including the preprocessing steps) and can be put into resample() or benchmark() . If you are familiar with the old mlr package, this is the equivalent of all the make*Wrapper() functions. The pipeline being encapsulated (here Graph ) must always produce a Prediction with its $predict() call, so it will probably contain at least one PipeOpLearner . glrn = GraphLearner$new(graph) This learner can be used for model fitting, resampling, benchmarking, and tuning. resample(task, glrn, &quot;cv3&quot;) #&gt; &lt;ResampleResult&gt; of 3 iterations #&gt; * Task: iris #&gt; * Learner: mutate.variance.classif.rpart #&gt; * Performance: 0.073 [classif.ce] #&gt; * Warnings: 0 in 0 iterations #&gt; * Errors: 0 in 0 iterations 5.4.1 Setting Hyperparameters Individual POs offer hyperparameters because they contain $param_set slots that can be read and written from $param_set$values (via the paradox package). The parameters get passed down to the Graph, and finally to the GraphLearner . This makes it not only possible to easily change change the behavior of a Graph / GraphLearner and try different settings manually, but also to perform tuning using the mlr3tuning package. glrn$param_set$values$variance.filter.frac = 0.25 resample(task, glrn, &quot;cv3&quot;) #&gt; &lt;ResampleResult&gt; of 3 iterations #&gt; * Task: iris #&gt; * Learner: mutate.variance.classif.rpart #&gt; * Performance: 0.080 [classif.ce] #&gt; * Warnings: 0 in 0 iterations #&gt; * Errors: 0 in 0 iterations 5.4.2 Tuning If you are unfamiliar with tuning in mlr3 yet, we recommend to take a look at the section about tuning first. Here we define a ParamSet for the “rpart” learner and the “variance” filter which should be optimized during tuning. library(&quot;paradox&quot;) ps = ParamSet$new(list( ParamDbl$new(&quot;classif.rpart.cp&quot;, lower = 0, upper = 0.05), ParamDbl$new(&quot;variance.filter.frac&quot;, lower = 0.25, upper = 1) )) After having defined the PerformanceEvaluator, a random search with 10 iterations is created. For the inner resampling, we are simply doing holdout (single split into train/test) to keep the runtimes reasonable. library(&quot;mlr3tuning&quot;) pe = PerformanceEvaluator$new(task, glrn, &quot;holdout&quot;, &quot;classif.ce&quot;, ps) tuner = TunerRandomSearch$new(pe, TerminatorEvaluations$new(10)) tuner$tune() The tuning result can be inspected using the $tune_result() method. tuner$tune_result() "],
["pipe-nonlinear.html", "5.5 Non-Linear Graphs", " 5.5 Non-Linear Graphs The Graphs seen so far all have a linear structure. Some POs may have multiple input or output channels. These make it possible to create non-linear Graphs with alternative paths taken by the data. Possible types are Branching: Splitting of a node into several paths, useful for example when comparing multiple feature-selection methods (pca, filters). Only one path will be executed. Copying: Splitting of a node into several paths, all paths will be executed (sequentially). Parallel execution is not yet supported. Stacking: Single graphs are stacked onto each other, i.e. the output of one Graph is the input for another. In machine learning this means that the prediction of one Graph is used as input for another Graph 5.5.1 Branching &amp; Copying The PipeOpBranch and PipeOpUnbranch POs make it possible to specify multiple alternative paths. Only one is actually executed, the others are ignored. The active path is determined by a hyperparameter. This concept makes it possible to tune alternative preprocessing paths (or learner models). PipeOp(Un)Branch is initialized either with the number of branches, or with a character-vector indicating the names of the branches. If names are given, the “branch-choosing” hyperparameter becomes more readable. In the following, we set three options Doing nothing (“null”) Applying a PCA Scaling the data It is important to “unbranch” again after “branching”, so that the outputs are merged into one result objects. In the following we first create the branched graph and then show what happens if the “unbranching” is not applied. graph = mlr_pipeops$get(&quot;branch&quot;, c(&quot;null&quot;, &quot;pca&quot;, &quot;scale&quot;)) %&gt;&gt;% gunion(list( mlr_pipeops$get(&quot;null&quot;, id = &quot;null1&quot;), mlr_pipeops$get(&quot;pca&quot;), mlr_pipeops$get(&quot;scale&quot;) )) Without “unbranching”: graph$plot(html = TRUE) %&gt;% visInteraction(zoomView = FALSE) # disable zoom With “unbranching”: (graph %&gt;&gt;% mlr_pipeops$get(&quot;unbranch&quot;, c(&quot;null&quot;, &quot;pca&quot;, &quot;scale&quot;)))$plot(html = TRUE) %&gt;% visInteraction(zoomView = FALSE) # disable zoom 5.5.2 Model Ensembles We can leverage the different operations presented to connect POs to form powerful graphs. Before we go into details, we split the task into train and test indices. task = mlr_tasks$get(&quot;iris&quot;) train.idx = sample(seq_len(task$nrow), 120) test.idx = setdiff(seq_len(task$nrow), train.idx) 5.5.2.1 Bagging We first examine Bagging introduced by (Breiman 1996). The basic idea is to create multiple predictors and then aggregate those to a single, more powerful predictor. “… multiple versions are formed by making bootstrap replicates of the learning set and using these as new learning sets” (Breiman 1996) Bagging then aggregates a set of predictors by averaging (regression) or majority vote (classification). The idea behind bagging is, that a set of weak, but different predictors can be combined in order to arrive at a single, better predictor. We can achieve this by downsampling our data before training a learner, repeating this for say 10 times and then performing a majority vote on the predictions. First, we create a simple pipeline, that uses PipeOpSubsample before a PipeOpLearner is trained: single_pred = PipeOpSubsample$new(param_vals = list(frac = 0.7)) %&gt;&gt;% PipeOpLearner$new(mlr_learners$get(&quot;classif.rpart&quot;)) We can now copy this operation 10 times using greplicate . pred_set = greplicate(single_pred, 10L) Afterwards we need to aggregate the 10 pipelines to form a single model: bagging = pred_set %&gt;&gt;% PipeOpMajorityVote$new(innum = 10L) and plot again to see what happens: bagging$plot(html = TRUE) %&gt;% visInteraction(zoomView = FALSE) # disable zoom This pipeline can again be used in conjunction with GraphLearner in order for Bagging to be used like a Learner. baglrn = GraphLearner$new(bagging) baglrn$train(task, train.idx) baglrn$predict(task, test.idx) #&gt; &lt;PredictionClassif&gt; for 30 observations: #&gt; row_id truth response #&gt; 4 setosa setosa #&gt; 5 setosa setosa #&gt; 6 setosa setosa #&gt; --- #&gt; 138 virginica virginica #&gt; 146 virginica virginica #&gt; 148 virginica virginica In conjunction with different Backends, this can be a very powerful tool. In cases when the data does not fully fit in memory, we can obtain a fraction of the data for each learner from a DataBackend and then aggregate predictions over all learners. 5.5.2.2 Stacking Stacking (Wolpert 1992) is another technique that can improve model performance. The basic idea behind stacking is the use of predictions from one model as features for a subsequent model to possibly improve performance. As an example we can train a decision tree and use the predictions from this model in conjunction with the original features in order to train an additional model on top. In order to limit overfitting, we additionally do not predict on the original predictions of the learner, but instead on out-of-bag predictions. To do all this, we can use PipeOpLearnerCV . PipeOpLearnerCV performs nested cross-validation on the training data, fitting a model in each fold. Each of the models is then used to predict on the out-of-fold data. As a result, we obtain predictions for every data point in our input data. We first create a “level 0” learner, which is used to extract a lower level prediction. We additionally clone() the learner object to obtain a copy of the learner, and set a custom id for the PipeOp . lrn = mlr_learners$get(&quot;classif.rpart&quot;) lrn_0 = PipeOpLearnerCV$new(lrn$clone()) lrn_0$id = &quot;rpart_cv&quot; Additionally, we use a FIXME in parallel to the “level 0” learner, in order to send the unchanged Task to the next level, where it is then combined with the predictions from our decision tree learner. level_0 = gunion(list(lrn_0, PipeOpNULL$new())) Afterwards, we want to concatenate the predictions from PipeOpLearnerCV and the original Task using PipeOpFeatureUnion . combined = level_0 %&gt;&gt;% PipeOpFeatureUnion$new(2) We can now train another learner on top of the combined features. stack = combined %&gt;&gt;% PipeOpLearner$new(lrn$clone()) stack$plot(html = TRUE) %&gt;% visInteraction(zoomView = FALSE) # disable zoom stacklrn = GraphLearner$new(stack) stacklrn$train(task, train.idx) stacklrn$predict(task, test.idx) In this vignette, we showed a very simple usecase for stacking. In many real-world applications, stacking is done for multiple levels and on multiple representations of the dataset. On a lower level, different preprocessing methods can be defined in conjunction with several learners. On a higher level, we can then combine those predictions in order to form a very powerful model. 5.5.2.3 Multilevel Stacking In order to showcase the power of mlr3pipelines, we will show a more complicated stacking example. In this case, we train a glmnet and 2 different rpart models (some transform its inputs using PipeOpPCA ) on our task in the “level 0” and concatenate them with the original features (via FIXME). The result is then passed on to &quot;level 1&quot;, where we copy the concatenated features 3 times and put this task into a _rpart_ and a _glmnet_ model. Additionally, we keep a version of the &quot;level 0&quot; output (via FIXME ) and pass this on to “level 2”. In “level 2” we simply concatenate all “level 1” outputs and train a final decision tree. rprt = mlr_learners$get(&quot;classif.rpart&quot;) rprt$predict_type = &quot;prob&quot; glmn = mlr_learners$get(&quot;classif.glmnet&quot;) glmn$predict_type = &quot;prob&quot; # Create Learner CV Operators lrn_0 = PipeOpLearnerCV$new(rprt, id = &quot;rpart_cv_1&quot;) lrn_0$values$maxdepth = 5L lrn_1 = PipeOpPCA$new(id = &quot;pca1&quot;) %&gt;&gt;% PipeOpLearnerCV$new(rprt, id = &quot;rpart_cv_2&quot;) lrn_1$values$maxdepth = 1L lrn_2 = PipeOpPCA$new(id = &quot;pca2&quot;) %&gt;&gt;% PipeOpLearnerCV$new(glmn) # Union them with a PipeOpNULL to keep original features level_0 = gunion(list(lrn_0, lrn_1,lrn_2, PipeOpNULL$new(id = &quot;NULL1&quot;))) # Cbind the output 3 times, train 2 learners but also keep level # 0 predictions level_1 = level_0 %&gt;&gt;% PipeOpFeatureUnion$new(4) %&gt;&gt;% PipeOpCopy$new(3) %&gt;&gt;% gunion(list( PipeOpLearnerCV$new(rprt, id = &quot;rpart_cv_l1&quot;), PipeOpLearnerCV$new(glmn, id = &quot;glmnt_cv_l1&quot;), PipeOpNULL$new(id = &quot;NULL_l1&quot;) )) # Cbind predicitions, train a final learner. level_2 = level_1 %&gt;&gt;% PipeOpFeatureUnion$new(3, id = &quot;u2&quot;) %&gt;&gt;% PipeOpLearner$new(rprt, id = &quot;rpart_l2&quot;) # Plot the resulting graph level_2$plot(html = TRUE) %&gt;% visInteraction(zoomView = FALSE) # disable zoom task = mlr_tasks$get(&quot;iris&quot;), lrn = GraphLearner$new(level_2) lrn$ train(task, train.idx)$ predict(task, test.idx)$ score() References "],
["pipe-special-ops.html", "5.6 Special Operators", " 5.6 Special Operators This section introduce some special operators, that might be useful in many applications. 5.6.1 Imputation: PipeOpImpute An often occurring setting is the imputation of missing data. Imputation methods range from relatively simple imputation using either mean, median or histograms to way more involved methods including using machine learning algorithms in order to predict missing values. The following PipeOp imputes numeric values from a histogram, adds a new level for factors and additionally adds a column marking whether a value for a given feature was missing or not. poi = PipeOpImpute$new(param_vals = list(method_num = &quot;hist&quot;, method_fct = &quot;sample&quot;, add_dummy = &quot;all&quot;)) A learner can thus be equipped with automatic imputation of missing values by adding an imputation Pipeop. polrn = PipeOpLearner$new(mlr_learners$get(&quot;classif.rpart&quot;)) lrn = GraphLearner$new(graph = poi %&gt;&gt;% polrn) 5.6.2 Feature Engineering: PipeOpMutate New features can be added or computed from a task using PipeOpMutate . The operator evaluates one or multiple expressions provided in an alist. In this example, we compute some new features on top of the iris task and add them to the data. pom = PipeOpMutate$new() # Define a set of mutations mutations = alist( Sepal.Sum = Sepal.Length + Sepal.Width, Petal.Sum = Petal.Length + Petal.Width, Sepal.Petal.Ratio = (Sepal.Length / Petal.Length) ) pom$param_set$values$mutation = mutations If outside data is required, we can make use of the env parameter and additionally provide an environment, where expressions are evaluated (env defaults to .GlobalEnv). 5.6.3 Training on data subsets: PipeOpChunk In cases, where data is too big to fit into the machine’s memory, an often-used technique is to split the data into several parts, train on each part of the data and afterwards aggregate the models. In this example, we split our data into 4 parts using PipeOpChunk . Additionally, we create 4 PipeOpLearner POS, which are then trained on each split of the data. chks = PipeOpChunk$new(4) lrns = greplicate(PipeOpLearner$new(mlr_learners$get(&quot;classif.rpart&quot;)), 4) Afterwards we can use PipeOpMajorityVote to aggregate the predictions from the 4 different models into a new one. mjv = PipeOpMajorityVote$new(4) We can now connect the different operators and visualize the full graph: pipeline = chks %&gt;&gt;% lrns %&gt;&gt;% mjv pipeline$plot(html = TRUE) %&gt;% visInteraction(zoomView = FALSE) # disable zoom pipelrn = GraphLearner$new(pipeline) pipelrn$train(task, train.idx)$ predict(task, train.idx)$ score() #&gt; classif.ce #&gt; 0.4 5.6.4 Feature Selection: PipeOpFilter , PipeOpSelect mlr3filters contains many different Filters that can be used to select features for subsequent learners. This is often required when the data has a large amount of features. PipeOpFilter$new(mlr3filters::FilterInformationGain$new()) #&gt; PipeOp: &lt;information_gain&gt; (not trained) #&gt; values: &lt;list()&gt; #&gt; Input channels &lt;name [train type, predict type]&gt;: #&gt; input [Task,Task] #&gt; Output channels &lt;name [train type, predict type]&gt;: #&gt; output [Task,Task] How many features to keep can be set using filter_nfeat, filter_frac and filter_cutoff. Filters can be selected / de-selected by name using PipeOpSelect . "],
["technical.html", "6 Technical", " 6 Technical This chapter give an overview about technical details of the mlr3 framework. At first, some details about parallelization and the usage of the future is given. Section Database Backends describes how to work with database backends that mlr3 supports. Database backends can be helpful for large data processing which does not fit in memory or is stored natively in a database (e.g. sqlite). In section Parameters instructions are given how to define parameter sets for learners, how do sample parameters and apply parameter transformations. Last, we provide a transition guide for users of the old mlr who want to switch to mlr3. "],
["parallelization.html", "6.1 Parallelization", " 6.1 Parallelization mlr3 uses the future backends for parallelization. Make sure you have installed the required packages future and future.apply: mlr3 is capable of parallelizing a variety of different scenarios. One of the most used cases is to parallelize the Resampling iterations. See Section Resampling for a detailed introduction to resampling. In the following, we will use the spam task and a simple classification tree (&quot;classif.rpart&quot;) to showcase parallelization. We use the future package to parallelize the resampling by selecting a backend via the function future::plan(). We use the &quot;multiprocess&quot; backend here which uses threads on UNIX based systems and a “Socket” cluster on Windows. future::plan(&quot;multiprocess&quot;) task = mlr_tasks$get(&quot;spam&quot;) learner = mlr_learners$get(&quot;classif.rpart&quot;) resampling = mlr_resamplings$get(&quot;subsampling&quot;) time = Sys.time() resample(task, learner, resampling) Sys.time() - time By default all CPUs of your machine are used unless you specify argument workers in future::plan(). On most systems you should see a decrease in the reported elapsed time. On some systems (e.g. Windows), the overhead for parallelization is quite large though. Therefore, it is advised to only enable parallelization for resamplings where each iteration runs at least 10s. Choosing the parallelization level If you have are transitioning from mlr you might be used to selecting different parallelization levels, e.g. for resampling, benchmarking or tuning. In mlr3 this is no longer required All kind of events are rolled out on the same level - no need to decide whether you want to parallelize the tuning OR the resampling. Just lean back and let the machine do the work :-) "],
